0.18438722 -0.01849912 -0.02830152 -0.07109634 -0.02715888 0.02756803 -0.03565083 -0.01369865 -0.01527099 -0.00492995 0.12841372 -0.03539546 0.17788100 -0.01477637 -0.02119328 -0.02373440 -0.04666755 -0.01800162 0.23530395 0.34041342 -0.12424984 0.09196556 -0.01554807 -0.02869456 -0.04123437 -0.03308303 0.07664649 -0.03315378 0.10582434 -0.03139750 0.02639907 -0.01951332 0.01239489 -0.00462767 -0.04545420 0.02661628 0.12533176 -0.04608761 0.07830849 -0.01729370 -0.02764488 -0.02245206 0.01309027 -0.01685556 0.01626244 -0.00947624 -0.02276758 -0.01041247 -0.01694657 0.02340954 -0.11085697 -0.04777641 -0.13211237 -0.01179347 -0.01890416 -0.01512374 -0.03284816 -0.01346753 -0.03273456 -0.01209421 0.10127241 0.05880396 -0.01116108 0.09360483 0.06705525 0.16819578 -0.01509901 -0.05766696 -0.01307526 -0.02117671 0.06828112 -0.02683510 -0.03324457 -0.03396572 0.16793598 0.05263975 -0.06927639 -0.08068951 -0.00519324 0.10283078 -0.02452599 -0.04953010 -0.01830584 -0.04552575 0.01290146 0.23778442 -0.00953570 -0.02589568 -0.05573406 -0.03081187 -0.01702236 -0.02664626 0.29109529 -0.02152904 -0.02697703 0.03217982 -0.08625926 -0.03304235 -0.01136445 -0.00596643 -0.02405328 -0.00897850 -0.04231099 0.00910557 -0.05821867 0.14171557 -0.05122367 -0.00682605 -0.03899666 -0.01620174 0.16643012 -0.06674692 -0.02313025 0.12878636 -0.03683558 0.08523870 -0.01483934 -0.01203528 -0.04299989 -0.03345665 0.07344689 0.14667886 -0.03392551 -0.00867049 -0.03976619 -0.01117092 -0.04120238 -0.04104250
