-0.02732217 0.11358239 0.00669741 0.00631242 0.00440646 0.00262777 -0.02836224 -0.04782987 0.00262464 -0.03394482 -0.05304585 0.01202026 0.03825748 -0.01100893 0.03873017 0.05417083 0.01354137 -0.01339227 0.02626619 -0.02091403 -0.04226105 -0.01175095 -0.00699819 0.00147845 -0.20075616 0.01345383 0.01477914 0.00022825 -0.00086736 -0.10611114 -0.05560806 0.02622898 -0.10225664 -0.01739491 -0.00106311 -0.08624064 -0.02187420 -0.00022027 0.08264158 0.03287868 -0.07575081 0.11746283 -0.00239321 0.04452983 0.05762507 -0.03080573 0.00101283 0.00228468 0.01750607 -0.15209964 -0.01966042 -0.01656083 -0.01887010 -0.04951537 0.03304047 0.01722044 0.06447936 0.00214741 -0.00764335 -0.03976727 -0.01977050 -0.04048501 0.00182567 0.06429819 -0.00407052 0.09826642 -0.01699564 -0.11172891 -0.03983643 -0.03690707 0.09998102 0.02957232 0.10649223 0.01842361 0.07663564 0.04947480 0.13341291 0.01329337 0.03369556 0.03743185 0.12527320 0.05030296 -0.10834507 -0.05594645 -0.00877670 -0.02195734 -0.00999948 -0.03591779 0.03271732 -0.05913284 0.01929679 -0.01401001 -0.02218441 -0.08459110 -0.01007225 -0.04059599 0.00039790 0.00763104 -0.01354069 0.01495997 -0.22047435 -0.11521133 0.10262109 -0.02318161 0.04854991 -0.20080632 0.00457418 -0.08929741 -0.00437670 0.00008155 0.08191472 -0.00510611 0.01488916 -0.02902792 0.13120994 -0.03245289 -0.02696258 0.03632864 -0.01086368 0.01245908 -0.02431399 0.04075678 0.00847160 -0.01017504 0.04275216 0.01021551 0.00491237 -0.03542091
