-0.01548250 -0.03555193 -0.04334284 -0.00881648 -0.02935201 0.02881187 0.12924826 -0.01627930 -0.02280702 -0.01893487 -0.03454105 0.07635990 -0.01433829 -0.02815581 -0.04176594 -0.04310782 0.04382444 -0.01711700 -0.04500268 -0.04851680 0.03134451 -0.00289095 -0.05046720 0.12520316 -0.10961066 0.07828988 -0.01199228 -0.01100317 0.01187115 -0.00750066 0.10266903 -0.01527721 -0.06159401 -0.02922999 -0.00516463 -0.04045377 -0.01286784 -0.03196345 0.05909081 -0.02837316 -0.08392172 -0.01849250 0.20334636 0.20258673 0.18031168 -0.01123453 -0.02196028 0.22202146 -0.01559877 -0.05651088 0.16029407 -0.00993394 0.12052218 -0.02086377 0.04654023 0.15897971 -0.05290093 -0.00596799 0.02742605 0.19098297 0.00750538 0.15217797 -0.02960112 0.22879004 0.06878623 0.08298372 0.13835737 -0.02877379 0.03345414 -0.01979300 -0.02609074 0.21420719 -0.00211933 -0.04446359 -0.05798923 -0.04800826 -0.02707473 0.17905666 -0.00579398 -0.00674518 0.00811385 -0.00718468 0.13532658 -0.03012672 0.20932844 -0.05841014 0.06847522 -0.00896342 -0.01572684 -0.00538926 -0.01138499 -0.02242866 0.07081932 0.02471400 -0.01660381 -0.00647430 -0.04973153 -0.01320039 -0.02836663 -0.02480768 -0.00810716 -0.01852162 0.11656065 -0.03332515 -0.06229631 -0.01507763 -0.01624696 0.13513868 -0.09595955 -0.11307669 -0.02305064 -0.03677252 -0.00687844 -0.01303728 0.00806384 0.05489379 -0.01250251 -0.03435266 -0.02603695 -0.02508419 -0.12446562 -0.04644330 -0.02253032 -0.07595316 -0.02306560 -0.02096709 0.02179139 -0.01065561
