0.04634017 0.15314394 0.08506712 0.12780277 0.00181430 -0.01477101 -0.01256454 0.07437088 -0.02659518 0.02067537 -0.01335201 -0.00843187 -0.02684479 -0.01082455 -0.01434993 -0.01717838 -0.04090986 0.01914564 0.00307084 0.07924175 -0.01359426 -0.02268608 0.02134896 0.02456791 -0.03942059 -0.06889887 0.05679503 0.04772829 -0.02574144 -0.01389061 0.04267148 -0.01208838 -0.03040957 -0.02679705 0.12110143 -0.00810941 0.06981585 -0.00926590 0.00208340 0.01625449 0.10706567 -0.03047260 -0.01445269 -0.02744371 0.09447186 -0.01671197 -0.00112054 0.09528048 -0.01474582 0.08218154 0.03032544 0.07244117 0.16206037 -0.00887194 0.15593076 0.09233170 0.03273445 -0.06995159 0.08275200 0.12803444 0.10697243 0.10803120 -0.00811174 -0.03410665 0.03535295 -0.02088446 0.07544606 0.18809888 -0.02664720 0.11645629 -0.02186593 0.08797805 0.02641573 0.02406590 -0.02057388 0.00747658 0.10377699 -0.01060906 -0.03077993 0.07486316 0.11484087 -0.01718113 -0.00892604 -0.04215111 0.04543794 0.02811681 -0.00975503 0.06585501 -0.05144411 0.11313504 -0.02425464 -0.00684735 0.19965766 0.08962671 0.07618042 -0.05646547 0.10188094 0.20227906 -0.00966855 -0.01254169 0.01171547 -0.02564136 0.05568546 0.08729809 0.00584269 0.01611221 -0.02208085 -0.05602962 -0.01933035 0.02340631 -0.00886104 0.02288391 -0.04545675 -0.00451019 0.13255650 -0.01145138 -0.01100019 0.03504332 -0.01486463 -0.01580051 -0.01935452 0.00036975 -0.07820835 -0.02194609 0.11428723 -0.01006688 0.10138826 -0.00897738
